digraph Tree {
node [shape=box] ;
0 [label="X[1] <= 0.8131\ngini = 0.6692\nsamples = 3732\nvalue = [43, 82, 4, 3, 7, 96, 543, 1171, 3, 1709, 2, 3\n2, 52, 12]"] ;
1 [label="X[1] <= 0.7938\ngini = 0.6526\nsamples = 2922\nvalue = [35, 49, 3, 2, 7, 95, 369, 842, 3, 1451, 2, 3, 2\n50, 9]"] ;
0 -> 1 [labeldistance=2.5, labelangle=45, headlabel="True"] ;
2 [label="X[0] <= 0.3076\ngini = 0.6366\nsamples = 338\nvalue = [0, 1, 0, 0, 0, 2, 65, 158, 0, 111, 0, 0, 0, 1\n0]"] ;
1 -> 2 ;
3 [label="gini = 0.6442\nsamples = 85\nvalue = [0, 1, 0, 0, 0, 1, 38, 30, 0, 15, 0, 0, 0, 0\n0]"] ;
2 -> 3 ;
4 [label="gini = 0.5886\nsamples = 253\nvalue = [0, 0, 0, 0, 0, 1, 27, 128, 0, 96, 0, 0, 0, 1\n0]"] ;
2 -> 4 ;
5 [label="X[2] <= 0.539\ngini = 0.645\nsamples = 2584\nvalue = [35, 48, 3, 2, 7, 93, 304, 684, 3, 1340, 2, 3, 2\n49, 9]"] ;
1 -> 5 ;
6 [label="gini = 0.6695\nsamples = 675\nvalue = [1, 11, 0, 0, 1, 23, 105, 229, 0, 294, 2, 2, 0\n3, 4]"] ;
5 -> 6 ;
7 [label="gini = 0.6295\nsamples = 1909\nvalue = [34, 37, 3, 2, 6, 70, 199, 455, 3, 1046, 0, 1, 2\n46, 5]"] ;
5 -> 7 ;
8 [label="X[2] <= 0.7078\ngini = 0.6856\nsamples = 810\nvalue = [8, 33, 1, 1, 0, 1, 174, 329, 0, 258, 0, 0, 0\n2, 3]"] ;
0 -> 8 [labeldistance=2.5, labelangle=-45, headlabel="False"] ;
9 [label="X[0] <= 0.2955\ngini = 0.6552\nsamples = 462\nvalue = [2, 16, 1, 0, 0, 1, 97, 222, 0, 121, 0, 0, 0\n1, 1]"] ;
8 -> 9 ;
10 [label="gini = 0.6961\nsamples = 155\nvalue = [0, 9, 0, 0, 0, 0, 51, 57, 0, 37, 0, 0, 0, 0\n1]"] ;
9 -> 10 ;
11 [label="gini = 0.6132\nsamples = 307\nvalue = [2, 7, 1, 0, 0, 1, 46, 165, 0, 84, 0, 0, 0, 1\n0]"] ;
9 -> 11 ;
12 [label="X[1] <= 0.8616\ngini = 0.6988\nsamples = 348\nvalue = [6, 17, 0, 1, 0, 0, 77, 107, 0, 137, 0, 0, 0\n1, 2]"] ;
8 -> 12 ;
13 [label="gini = 0.6724\nsamples = 295\nvalue = [5, 10, 0, 1, 0, 0, 58, 84, 0, 134, 0, 0, 0, 1\n2]"] ;
12 -> 13 ;
14 [label="gini = 0.6622\nsamples = 53\nvalue = [1, 7, 0, 0, 0, 0, 19, 23, 0, 3, 0, 0, 0, 0\n0]"] ;
12 -> 14 ;
}