digraph Tree {
node [shape=box] ;
0 [label="X[0] <= 110.5\nmse = 1.2683\nsamples = 4034\nvalue = 6.4504"] ;
1 [label="X[0] <= 65.5\nmse = 1.3316\nsamples = 2609\nvalue = 6.2059"] ;
0 -> 1 [labeldistance=2.5, labelangle=45, headlabel="True"] ;
2 [label="X[0] <= 9.0\nmse = 1.4657\nsamples = 115\nvalue = 7.3"] ;
1 -> 2 ;
3 [label="X[3447] <= 0.5\nmse = 2.5411\nsamples = 15\nvalue = 6.16"] ;
2 -> 3 ;
4 [label="X[3004] <= 0.5\nmse = 1.8586\nsamples = 14\nvalue = 6.4"] ;
3 -> 4 ;
5 [label="X[7655] <= 0.5\nmse = 1.3049\nsamples = 13\nvalue = 6.6231"] ;
4 -> 5 ;
6 [label="X[1] <= -6500.0\nmse = 1.0797\nsamples = 12\nvalue = 6.7833"] ;
5 -> 6 ;
7 [label="X[1] <= -562500.0\nmse = 0.8625\nsamples = 6\nvalue = 6.05"] ;
6 -> 7 ;
8 [label="X[7852] <= 0.5\nmse = 0.685\nsamples = 4\nvalue = 6.5"] ;
7 -> 8 ;
9 [label="X[8220] <= 0.5\nmse = 0.0422\nsamples = 3\nvalue = 6.9667"] ;
8 -> 9 ;
10 [label="X[4020] <= 0.5\nmse = 0.01\nsamples = 2\nvalue = 7.1"] ;
9 -> 10 ;
11 [label="mse = 0.0\nsamples = 1\nvalue = 7.2"] ;
10 -> 11 ;
12 [label="mse = 0.0\nsamples = 1\nvalue = 7.0"] ;
10 -> 12 ;
13 [label="mse = 0.0\nsamples = 1\nvalue = 6.7"] ;
9 -> 13 ;
14 [label="mse = -0.0\nsamples = 1\nvalue = 5.1"] ;
8 -> 14 ;
15 [label="X[0] <= 3.5\nmse = 0.0025\nsamples = 2\nvalue = 5.15"] ;
7 -> 15 ;
16 [label="mse = 0.0\nsamples = 1\nvalue = 5.1"] ;
15 -> 16 ;
17 [label="mse = -0.0\nsamples = 1\nvalue = 5.2"] ;
15 -> 17 ;
18 [label="X[3310] <= 0.5\nmse = 0.2214\nsamples = 6\nvalue = 7.5167"] ;
6 -> 18 ;
19 [label="X[6199] <= 0.5\nmse = 0.1536\nsamples = 5\nvalue = 7.38"] ;
18 -> 19 ;
20 [label="X[4113] <= 0.5\nmse = 0.03\nsamples = 4\nvalue = 7.2"] ;
19 -> 20 ;
21 [label="mse = 0.0\nsamples = 3\nvalue = 7.1"] ;
20 -> 21 ;
22 [label="mse = 0.0\nsamples = 1\nvalue = 7.5"] ;
20 -> 22 ;
23 [label="mse = 0.0\nsamples = 1\nvalue = 8.1"] ;
19 -> 23 ;
24 [label="mse = -0.0\nsamples = 1\nvalue = 8.2"] ;
18 -> 24 ;
25 [label="mse = -0.0\nsamples = 1\nvalue = 4.7"] ;
5 -> 25 ;
26 [label="mse = 0.0\nsamples = 1\nvalue = 3.5"] ;
4 -> 26 ;
27 [label="mse = -0.0\nsamples = 1\nvalue = 2.8"] ;
3 -> 27 ;
28 [label="X[2731] <= 0.5\nmse = 1.0803\nsamples = 100\nvalue = 7.471"] ;
2 -> 28 ;
29 [label="X[6055] <= 0.5\nmse = 0.878\nsamples = 99\nvalue = 7.5172"] ;
28 -> 29 ;
30 [label="X[5205] <= 0.5\nmse = 0.7206\nsamples = 98\nvalue = 7.5582"] ;
29 -> 30 ;
31 [label="X[11062] <= 0.5\nmse = 0.5565\nsamples = 97\nvalue = 7.6"] ;
30 -> 31 ;
32 [label="X[4649] <= 0.5\nmse = 0.4561\nsamples = 79\nvalue = 7.4392"] ;
31 -> 32 ;
33 [label="X[10964] <= 0.5\nmse = 0.4068\nsamples = 78\nvalue = 7.4128"] ;
32 -> 33 ;
34 [label="X[2993] <= 0.5\nmse = 0.3778\nsamples = 77\nvalue = 7.4338"] ;
33 -> 34 ;
35 [label="X[0] <= 23.5\nmse = 0.3514\nsamples = 76\nvalue = 7.4539"] ;
34 -> 35 ;
36 [label="X[9725] <= 0.5\nmse = 0.4725\nsamples = 8\nvalue = 6.95"] ;
35 -> 36 ;
37 [label="X[10833] <= 0.5\nmse = 0.3241\nsamples = 7\nvalue = 6.7857"] ;
36 -> 37 ;
38 [label="X[365] <= 0.5\nmse = 0.1367\nsamples = 6\nvalue = 6.6"] ;
37 -> 38 ;
39 [label="X[7305] <= 0.5\nmse = 0.0776\nsamples = 5\nvalue = 6.48"] ;
38 -> 39 ;
40 [label="mse = 0.0519\nsamples = 4\nvalue = 6.575"] ;
39 -> 40 ;
41 [label="mse = -0.0\nsamples = 1\nvalue = 6.1"] ;
39 -> 41 ;
42 [label="mse = -0.0\nsamples = 1\nvalue = 7.2"] ;
38 -> 42 ;
43 [label="mse = -0.0\nsamples = 1\nvalue = 7.9"] ;
37 -> 43 ;
44 [label="mse = 0.0\nsamples = 1\nvalue = 8.1"] ;
36 -> 44 ;
45 [label="X[8165] <= 0.5\nmse = 0.3038\nsamples = 68\nvalue = 7.5132"] ;
35 -> 45 ;
46 [label="X[3193] <= 0.5\nmse = 0.2736\nsamples = 67\nvalue = 7.5358"] ;
45 -> 46 ;
47 [label="X[8845] <= 0.5\nmse = 0.2569\nsamples = 66\nvalue = 7.5182"] ;
46 -> 47 ;
48 [label="X[1] <= -87500.0\nmse = 0.2426\nsamples = 65\nvalue = 7.5015"] ;
47 -> 48 ;
49 [label="mse = 0.2516\nsamples = 10\nvalue = 7.82"] ;
48 -> 49 ;
50 [label="mse = 0.2192\nsamples = 55\nvalue = 7.4436"] ;
48 -> 50 ;
51 [label="mse = 0.0\nsamples = 1\nvalue = 8.6"] ;
47 -> 51 ;
52 [label="mse = -0.0\nsamples = 1\nvalue = 8.7"] ;
46 -> 52 ;
53 [label="mse = -0.0\nsamples = 1\nvalue = 6.0"] ;
45 -> 53 ;
54 [label="mse = 0.0\nsamples = 1\nvalue = 5.9"] ;
34 -> 54 ;
55 [label="mse = -0.0\nsamples = 1\nvalue = 5.8"] ;
33 -> 55 ;
56 [label="mse = -0.0\nsamples = 1\nvalue = 9.5"] ;
32 -> 56 ;
57 [label="X[6164] <= 0.5\nmse = 0.3861\nsamples = 18\nvalue = 8.3056"] ;
31 -> 57 ;
58 [label="X[7901] <= 0.5\nmse = 0.3026\nsamples = 17\nvalue = 8.3824"] ;
57 -> 58 ;
59 [label="X[3699] <= 0.5\nmse = 0.2253\nsamples = 15\nvalue = 8.5"] ;
58 -> 59 ;
60 [label="X[3722] <= 0.5\nmse = 0.1312\nsamples = 14\nvalue = 8.5857"] ;
59 -> 60 ;
61 [label="X[6690] <= 0.5\nmse = 0.0902\nsamples = 13\nvalue = 8.6462"] ;
60 -> 61 ;
62 [label="X[1] <= -17000000.0\nmse = 0.0623\nsamples = 11\nvalue = 8.5636"] ;
61 -> 62 ;
63 [label="mse = 0.0\nsamples = 1\nvalue = 8.1"] ;
62 -> 63 ;
64 [label="X[4521] <= 0.5\nmse = 0.0449\nsamples = 10\nvalue = 8.61"] ;
62 -> 64 ;
65 [label="X[2901] <= 0.5\nmse = 0.0311\nsamples = 9\nvalue = 8.5667"] ;
64 -> 65 ;
66 [label="mse = 0.025\nsamples = 8\nvalue = 8.6"] ;
65 -> 66 ;
67 [label="mse = 0.0\nsamples = 1\nvalue = 8.3"] ;
65 -> 67 ;
68 [label="mse = -0.0\nsamples = 1\nvalue = 9.0"] ;
64 -> 68 ;
69 [label="mse = 0.0\nsamples = 2\nvalue = 9.1"] ;
61 -> 69 ;
70 [label="mse = 0.0\nsamples = 1\nvalue = 7.8"] ;
60 -> 70 ;
71 [label="mse = 0.0\nsamples = 1\nvalue = 7.3"] ;
59 -> 71 ;
72 [label="mse = 0.0\nsamples = 2\nvalue = 7.5"] ;
58 -> 72 ;
73 [label="mse = -0.0\nsamples = 1\nvalue = 7.0"] ;
57 -> 73 ;
74 [label="mse = -0.0\nsamples = 1\nvalue = 3.5"] ;
30 -> 74 ;
75 [label="mse = -0.0\nsamples = 1\nvalue = 3.5"] ;
29 -> 75 ;
76 [label="mse = -0.0\nsamples = 1\nvalue = 2.9"] ;
28 -> 76 ;
77 [label="X[1] <= -996446.0\nmse = 1.2676\nsamples = 2494\nvalue = 6.1554"] ;
1 -> 77 ;
78 [label="X[0] <= 97.5\nmse = 1.3233\nsamples = 1079\nvalue = 5.9315"] ;
77 -> 78 ;
79 [label="X[2305] <= 0.5\nmse = 1.5889\nsamples = 536\nvalue = 5.7239"] ;
78 -> 79 ;
80 [label="X[11057] <= 0.5\nmse = 1.5496\nsamples = 533\nvalue = 5.7402"] ;
79 -> 80 ;
81 [label="X[416] <= 0.5\nmse = 1.5333\nsamples = 416\nvalue = 5.8478"] ;
80 -> 81 ;
82 [label="X[3295] <= 0.5\nmse = 1.4911\nsamples = 414\nvalue = 5.8633"] ;
81 -> 82 ;
83 [label="X[9111] <= 0.5\nmse = 1.4485\nsamples = 412\nvalue = 5.8777"] ;
82 -> 83 ;
84 [label="X[1937] <= 0.5\nmse = 1.4134\nsamples = 411\nvalue = 5.8873"] ;
83 -> 84 ;
85 [label="X[3228] <= 0.5\nmse = 1.3818\nsamples = 410\nvalue = 5.8966"] ;
84 -> 85 ;
86 [label="X[4023] <= 0.5\nmse = 1.3517\nsamples = 409\nvalue = 5.9056"] ;
85 -> 86 ;
87 [label="X[4662] <= 0.5\nmse = 1.3279\nsamples = 407\nvalue = 5.9177"] ;
86 -> 87 ;
88 [label="X[3551] <= 0.5\nmse = 1.304\nsamples = 406\nvalue = 5.9259"] ;
87 -> 88 ;
89 [label="X[1147] <= 0.5\nmse = 1.2815\nsamples = 405\nvalue = 5.9338"] ;
88 -> 89 ;
90 [label="mse = 1.2598\nsamples = 404\nvalue = 5.926"] ;
89 -> 90 ;
91 [label="mse = 0.0\nsamples = 1\nvalue = 9.1"] ;
89 -> 91 ;
92 [label="mse = 0.0\nsamples = 1\nvalue = 2.7"] ;
88 -> 92 ;
93 [label="mse = 0.0\nsamples = 1\nvalue = 2.6"] ;
87 -> 93 ;
94 [label="X[9037] <= 0.5\nmse = 0.1225\nsamples = 2\nvalue = 3.45"] ;
86 -> 94 ;
95 [label="mse = 0.0\nsamples = 1\nvalue = 3.1"] ;
94 -> 95 ;
96 [label="mse = -0.0\nsamples = 1\nvalue = 3.8"] ;
94 -> 96 ;
97 [label="mse = -0.0\nsamples = 1\nvalue = 2.2"] ;
85 -> 97 ;
98 [label="mse = 0.0\nsamples = 1\nvalue = 2.1"] ;
84 -> 98 ;
99 [label="mse = 0.0\nsamples = 1\nvalue = 1.9"] ;
83 -> 99 ;
100 [label="X[0] <= 88.0\nmse = 1.44\nsamples = 2\nvalue = 2.9"] ;
82 -> 100 ;
101 [label="mse = 0.0\nsamples = 1\nvalue = 4.1"] ;
100 -> 101 ;
102 [label="mse = 0.0\nsamples = 1\nvalue = 1.7"] ;
100 -> 102 ;
103 [label="X[4726] <= 0.5\nmse = 0.0025\nsamples = 2\nvalue = 2.65"] ;
81 -> 103 ;
104 [label="mse = 0.0\nsamples = 1\nvalue = 2.7"] ;
103 -> 104 ;
105 [label="mse = -0.0\nsamples = 1\nvalue = 2.6"] ;
103 -> 105 ;
106 [label="X[0] <= 80.5\nmse = 1.4197\nsamples = 117\nvalue = 5.3573"] ;
80 -> 106 ;
107 [label="X[0] <= 79.5\nmse = 0.4496\nsamples = 5\nvalue = 7.32"] ;
106 -> 107 ;
108 [label="mse = 0.0\nsamples = 2\nvalue = 6.5"] ;
107 -> 108 ;
109 [label="X[7995] <= 0.5\nmse = 0.0022\nsamples = 3\nvalue = 7.8667"] ;
107 -> 109 ;
110 [label="mse = 0.0\nsamples = 2\nvalue = 7.9"] ;
109 -> 110 ;
111 [label="mse = -0.0\nsamples = 1\nvalue = 7.8"] ;
109 -> 111 ;
112 [label="X[968] <= 0.5\nmse = 1.2834\nsamples = 112\nvalue = 5.2696"] ;
106 -> 112 ;
113 [label="X[593] <= 0.5\nmse = 1.1917\nsamples = 111\nvalue = 5.3"] ;
112 -> 113 ;
114 [label="X[9535] <= 0.5\nmse = 1.1026\nsamples = 110\nvalue = 5.33"] ;
113 -> 114 ;
115 [label="X[5517] <= 0.5\nmse = 1.0174\nsamples = 108\nvalue = 5.3713"] ;
114 -> 115 ;
116 [label="X[3258] <= 0.5\nmse = 0.9617\nsamples = 107\nvalue = 5.3467"] ;
115 -> 116 ;
117 [label="X[1208] <= 0.5\nmse = 0.9087\nsamples = 106\nvalue = 5.3226"] ;
116 -> 117 ;
118 [label="X[4048] <= 0.5\nmse = 0.8562\nsamples = 105\nvalue = 5.3467"] ;
117 -> 118 ;
119 [label="X[1044] <= 0.5\nmse = 0.806\nsamples = 104\nvalue = 5.3231"] ;
118 -> 119 ;
120 [label="mse = 0.7609\nsamples = 103\nvalue = 5.3456"] ;
119 -> 120 ;
121 [label="mse = 0.0\nsamples = 1\nvalue = 3.0"] ;
119 -> 121 ;
122 [label="mse = -0.0\nsamples = 1\nvalue = 7.8"] ;
118 -> 122 ;
123 [label="mse = 0.0\nsamples = 1\nvalue = 2.8"] ;
117 -> 123 ;
124 [label="mse = -0.0\nsamples = 1\nvalue = 7.9"] ;
116 -> 124 ;
125 [label="mse = 0.0\nsamples = 1\nvalue = 8.0"] ;
115 -> 125 ;
126 [label="X[0] <= 94.0\nmse = 0.64\nsamples = 2\nvalue = 3.1"] ;
114 -> 126 ;
127 [label="mse = 0.0\nsamples = 1\nvalue = 3.9"] ;
126 -> 127 ;
128 [label="mse = 0.0\nsamples = 1\nvalue = 2.3"] ;
126 -> 128 ;
129 [label="mse = 0.0\nsamples = 1\nvalue = 2.0"] ;
113 -> 129 ;
130 [label="mse = 0.0\nsamples = 1\nvalue = 1.9"] ;
112 -> 130 ;
131 [label="X[5171] <= 0.5\nmse = 0.1689\nsamples = 3\nvalue = 2.8333"] ;
79 -> 131 ;
132 [label="X[10273] <= 0.5\nmse = 0.04\nsamples = 2\nvalue = 3.1"] ;
131 -> 132 ;
133 [label="mse = 0.0\nsamples = 1\nvalue = 2.9"] ;
132 -> 133 ;
134 [label="mse = 0.0\nsamples = 1\nvalue = 3.3"] ;
132 -> 134 ;
135 [label="mse = 0.0\nsamples = 1\nvalue = 2.3"] ;
131 -> 135 ;
136 [label="X[1] <= -10330116.0\nmse = 0.9766\nsamples = 543\nvalue = 6.1365"] ;
78 -> 136 ;
137 [label="X[3030] <= 0.5\nmse = 0.9528\nsamples = 271\nvalue = 5.9022"] ;
136 -> 137 ;
138 [label="X[3668] <= 0.5\nmse = 0.8998\nsamples = 270\nvalue = 5.9167"] ;
137 -> 138 ;
139 [label="X[11057] <= 0.5\nmse = 0.8488\nsamples = 269\nvalue = 5.9309"] ;
138 -> 139 ;
140 [label="X[7287] <= 0.5\nmse = 0.8015\nsamples = 167\nvalue = 6.088"] ;
139 -> 140 ;
141 [label="X[5015] <= 0.5\nmse = 0.7368\nsamples = 166\nvalue = 6.1084"] ;
140 -> 141 ;
142 [label="X[10892] <= 0.5\nmse = 0.6823\nsamples = 165\nvalue = 6.1273"] ;
141 -> 142 ;
143 [label="X[8841] <= 0.5\nmse = 0.6375\nsamples = 164\nvalue = 6.1445"] ;
142 -> 143 ;
144 [label="X[1414] <= 0.5\nmse = 0.5982\nsamples = 163\nvalue = 6.1607"] ;
143 -> 144 ;
145 [label="X[4220] <= 0.5\nmse = 0.578\nsamples = 162\nvalue = 6.1728"] ;
144 -> 145 ;
146 [label="X[7452] <= 0.5\nmse = 0.562\nsamples = 161\nvalue = 6.1839"] ;
145 -> 146 ;
147 [label="mse = 0.5455\nsamples = 160\nvalue = 6.195"] ;
146 -> 147 ;
148 [label="mse = -0.0\nsamples = 1\nvalue = 4.4"] ;
146 -> 148 ;
149 [label="mse = 0.0\nsamples = 1\nvalue = 4.4"] ;
145 -> 149 ;
150 [label="mse = -0.0\nsamples = 1\nvalue = 4.2"] ;
144 -> 150 ;
151 [label="mse = 0.0\nsamples = 1\nvalue = 3.5"] ;
143 -> 151 ;
152 [label="mse = -0.0\nsamples = 1\nvalue = 3.3"] ;
142 -> 152 ;
153 [label="mse = 0.0\nsamples = 1\nvalue = 3.0"] ;
141 -> 153 ;
154 [label="mse = -0.0\nsamples = 1\nvalue = 2.7"] ;
140 -> 154 ;
155 [label="X[0] <= 100.5\nmse = 0.8194\nsamples = 102\nvalue = 5.6735"] ;
139 -> 155 ;
156 [label="X[1] <= -24338016.0\nmse = 1.0998\nsamples = 25\nvalue = 5.232"] ;
155 -> 156 ;
157 [label="X[2376] <= 0.5\nmse = 0.335\nsamples = 8\nvalue = 4.6"] ;
156 -> 157 ;
158 [label="X[1941] <= 0.5\nmse = 0.2196\nsamples = 7\nvalue = 4.4571"] ;
157 -> 158 ;
159 [label="X[1414] <= 0.5\nmse = 0.0833\nsamples = 6\nvalue = 4.3"] ;
158 -> 159 ;
160 [label="X[1] <= -38589360.0\nmse = 0.0136\nsamples = 5\nvalue = 4.18"] ;
159 -> 160 ;
161 [label="X[0] <= 99.5\nmse = 0.0022\nsamples = 3\nvalue = 4.2667"] ;
160 -> 161 ;
162 [label="mse = 0.0\nsamples = 1\nvalue = 4.2"] ;
161 -> 162 ;
163 [label="mse = -0.0\nsamples = 2\nvalue = 4.3"] ;
161 -> 163 ;
164 [label="X[3203] <= 0.5\nmse = 0.0025\nsamples = 2\nvalue = 4.05"] ;
160 -> 164 ;
165 [label="mse = 0.0\nsamples = 1\nvalue = 4.1"] ;
164 -> 165 ;
166 [label="mse = 0.0\nsamples = 1\nvalue = 4.0"] ;
164 -> 166 ;
167 [label="mse = -0.0\nsamples = 1\nvalue = 4.9"] ;
159 -> 167 ;
168 [label="mse = 0.0\nsamples = 1\nvalue = 5.4"] ;
158 -> 168 ;
169 [label="mse = -0.0\nsamples = 1\nvalue = 5.6"] ;
157 -> 169 ;
170 [label="X[7184] <= 0.5\nmse = 1.1833\nsamples = 17\nvalue = 5.5294"] ;
156 -> 170 ;
171 [label="X[10207] <= 0.5\nmse = 1.01\nsamples = 16\nvalue = 5.65"] ;
170 -> 171 ;
172 [label="X[7939] <= 0.5\nmse = 0.8837\nsamples = 15\nvalue = 5.54"] ;
171 -> 172 ;
173 [label="X[0] <= 98.5\nmse = 0.736\nsamples = 14\nvalue = 5.4214"] ;
172 -> 173 ;
174 [label="X[2651] <= 0.5\nmse = 0.2867\nsamples = 3\nvalue = 6.2"] ;
173 -> 174 ;
175 [label="mse = 0.0625\nsamples = 2\nvalue = 6.55"] ;
174 -> 175 ;
176 [label="mse = 0.0\nsamples = 1\nvalue = 5.5"] ;
174 -> 176 ;
177 [label="X[2539] <= 0.5\nmse = 0.6481\nsamples = 11\nvalue = 5.2091"] ;
173 -> 177 ;
178 [label="mse = 0.5296\nsamples = 10\nvalue = 5.08"] ;
177 -> 178 ;
179 [label="mse = 0.0\nsamples = 1\nvalue = 6.5"] ;
177 -> 179 ;
180 [label="mse = -0.0\nsamples = 1\nvalue = 7.2"] ;
172 -> 180 ;
181 [label="mse = 0.0\nsamples = 1\nvalue = 7.3"] ;
171 -> 181 ;
182 [label="mse = 0.0\nsamples = 1\nvalue = 3.6"] ;
170 -> 182 ;
183 [label="X[7392] <= 0.5\nmse = 0.6445\nsamples = 77\nvalue = 5.8169"] ;
155 -> 183 ;
184 [label="X[9701] <= 0.5\nmse = 0.5976\nsamples = 75\nvalue = 5.8573"] ;
183 -> 184 ;
185 [label="X[2598] <= 0.5\nmse = 0.5533\nsamples = 74\nvalue = 5.8838"] ;
184 -> 185 ;
186 [label="X[1786] <= 0.5\nmse = 0.5098\nsamples = 73\nvalue = 5.8575"] ;
185 -> 186 ;
187 [label="X[632] <= 0.5\nmse = 0.4782\nsamples = 72\nvalue = 5.8806"] ;
186 -> 187 ;
188 [label="X[4280] <= 0.5\nmse = 0.4446\nsamples = 71\nvalue = 5.9042"] ;
187 -> 188 ;
189 [label="mse = 0.4137\nsamples = 70\nvalue = 5.9271"] ;
188 -> 189 ;
190 [label="mse = 0.0\nsamples = 1\nvalue = 4.3"] ;
188 -> 190 ;
191 [label="mse = -0.0\nsamples = 1\nvalue = 4.2"] ;
187 -> 191 ;
192 [label="mse = -0.0\nsamples = 1\nvalue = 4.2"] ;
186 -> 192 ;
193 [label="mse = -0.0\nsamples = 1\nvalue = 7.8"] ;
185 -> 193 ;
194 [label="mse = 0.0\nsamples = 1\nvalue = 3.9"] ;
184 -> 194 ;
195 [label="X[8655] <= 0.5\nmse = 0.04\nsamples = 2\nvalue = 4.3"] ;
183 -> 195 ;
196 [label="mse = 0.0\nsamples = 1\nvalue = 4.5"] ;
195 -> 196 ;
197 [label="mse = 0.0\nsamples = 1\nvalue = 4.1"] ;
195 -> 197 ;
198 [label="mse = 0.0\nsamples = 1\nvalue = 2.1"] ;
138 -> 198 ;
199 [label="mse = 0.0\nsamples = 1\nvalue = 2.0"] ;
137 -> 199 ;
200 [label="X[10253] <= 0.5\nmse = 0.8912\nsamples = 272\nvalue = 6.3699"] ;
136 -> 200 ;
201 [label="X[3759] <= 0.5\nmse = 0.8549\nsamples = 271\nvalue = 6.3819"] ;
200 -> 201 ;
202 [label="X[4342] <= 0.5\nmse = 0.823\nsamples = 269\nvalue = 6.3985"] ;
201 -> 202 ;
203 [label="X[1324] <= 0.5\nmse = 0.7902\nsamples = 268\nvalue = 6.4101"] ;
202 -> 203 ;
204 [label="X[11057] <= 0.5\nmse = 0.7568\nsamples = 267\nvalue = 6.4217"] ;
203 -> 204 ;
205 [label="X[8473] <= 0.5\nmse = 0.7028\nsamples = 197\nvalue = 6.5234"] ;
204 -> 205 ;
206 [label="X[5619] <= 0.5\nmse = 0.6787\nsamples = 196\nvalue = 6.5352"] ;
205 -> 206 ;
207 [label="X[2314] <= 0.5\nmse = 0.6541\nsamples = 195\nvalue = 6.5472"] ;
206 -> 207 ;
208 [label="X[0] <= 104.5\nmse = 0.6336\nsamples = 194\nvalue = 6.5582"] ;
207 -> 208 ;
209 [label="X[10854] <= 0.5\nmse = 0.6136\nsamples = 123\nvalue = 6.4333"] ;
208 -> 209 ;
210 [label="mse = 0.5924\nsamples = 121\nvalue = 6.4107"] ;
209 -> 210 ;
211 [label="mse = 0.0\nsamples = 2\nvalue = 7.8"] ;
209 -> 211 ;
212 [label="X[9498] <= 0.5\nmse = 0.5943\nsamples = 71\nvalue = 6.7746"] ;
208 -> 212 ;
213 [label="mse = 0.5571\nsamples = 70\nvalue = 6.8"] ;
212 -> 213 ;
214 [label="mse = 0.0\nsamples = 1\nvalue = 5.0"] ;
212 -> 214 ;
215 [label="mse = 0.0\nsamples = 1\nvalue = 4.4"] ;
207 -> 215 ;
216 [label="mse = 0.0\nsamples = 1\nvalue = 4.2"] ;
206 -> 216 ;
217 [label="mse = -0.0\nsamples = 1\nvalue = 4.2"] ;
205 -> 217 ;
218 [label="X[4746] <= 0.5\nmse = 0.7977\nsamples = 70\nvalue = 6.1357"] ;
204 -> 218 ;
219 [label="X[3806] <= 0.5\nmse = 0.7271\nsamples = 69\nvalue = 6.1014"] ;
218 -> 219 ;
220 [label="X[2639] <= 0.5\nmse = 0.6588\nsamples = 68\nvalue = 6.1353"] ;
219 -> 220 ;
221 [label="X[10797] <= 0.5\nmse = 0.604\nsamples = 67\nvalue = 6.1045"] ;
220 -> 221 ;
222 [label="X[10012] <= 0.5\nmse = 0.5608\nsamples = 65\nvalue = 6.0615"] ;
221 -> 222 ;
223 [label="mse = 0.51\nsamples = 64\nvalue = 6.0312"] ;
222 -> 223 ;
224 [label="mse = 0.0\nsamples = 1\nvalue = 8.0"] ;
222 -> 224 ;
225 [label="mse = 0.0\nsamples = 2\nvalue = 7.5"] ;
221 -> 225 ;
226 [label="mse = -0.0\nsamples = 1\nvalue = 8.2"] ;
220 -> 226 ;
227 [label="mse = 0.0\nsamples = 1\nvalue = 3.8"] ;
219 -> 227 ;
228 [label="mse = -0.0\nsamples = 1\nvalue = 8.5"] ;
218 -> 228 ;
229 [label="mse = 0.0\nsamples = 1\nvalue = 3.3"] ;
203 -> 229 ;
230 [label="mse = 0.0\nsamples = 1\nvalue = 3.3"] ;
202 -> 230 ;
231 [label="X[11057] <= 0.5\nmse = 0.1225\nsamples = 2\nvalue = 4.15"] ;
201 -> 231 ;
232 [label="mse = 0.0\nsamples = 1\nvalue = 4.5"] ;
231 -> 232 ;
233 [label="mse = -0.0\nsamples = 1\nvalue = 3.8"] ;
231 -> 233 ;
234 [label="mse = -0.0\nsamples = 1\nvalue = 3.1"] ;
200 -> 234 ;
235 [label="X[0] <= 99.5\nmse = 1.1578\nsamples = 1415\nvalue = 6.3261"] ;
77 -> 235 ;
236 [label="X[1] <= 102148576.0\nmse = 1.3083\nsamples = 897\nvalue = 6.1742"] ;
235 -> 236 ;
237 [label="X[968] <= 0.5\nmse = 1.2912\nsamples = 865\nvalue = 6.1392"] ;
236 -> 237 ;
238 [label="X[2289] <= 0.5\nmse = 1.2723\nsamples = 863\nvalue = 6.1462"] ;
237 -> 238 ;
239 [label="X[8611] <= 0.5\nmse = 1.2558\nsamples = 861\nvalue = 6.153"] ;
238 -> 239 ;
240 [label="X[8313] <= 0.5\nmse = 1.2381\nsamples = 860\nvalue = 6.1577"] ;
239 -> 240 ;
241 [label="X[6103] <= 0.5\nmse = 1.2219\nsamples = 858\nvalue = 6.1643"] ;
240 -> 241 ;
242 [label="X[5278] <= 0.5\nmse = 1.2074\nsamples = 856\nvalue = 6.1707"] ;
241 -> 242 ;
243 [label="X[1832] <= 0.5\nmse = 1.1931\nsamples = 855\nvalue = 6.175"] ;
242 -> 243 ;
244 [label="X[11057] <= 0.5\nmse = 1.1786\nsamples = 854\nvalue = 6.1793"] ;
243 -> 244 ;
245 [label="X[4873] <= 0.5\nmse = 1.1529\nsamples = 660\nvalue = 6.2476"] ;
244 -> 245 ;
246 [label="X[5819] <= 0.5\nmse = 1.1376\nsamples = 659\nvalue = 6.2527"] ;
245 -> 246 ;
247 [label="mse = 1.1242\nsamples = 658\nvalue = 6.2574"] ;
246 -> 247 ;
248 [label="mse = -0.0\nsamples = 1\nvalue = 3.1"] ;
246 -> 248 ;
249 [label="mse = -0.0\nsamples = 1\nvalue = 2.9"] ;
245 -> 249 ;
250 [label="X[5] <= 0.5\nmse = 1.1964\nsamples = 194\nvalue = 5.9469"] ;
244 -> 250 ;
251 [label="X[5871] <= 0.5\nmse = 1.1477\nsamples = 193\nvalue = 5.9637"] ;
250 -> 251 ;
252 [label="mse = 1.1077\nsamples = 192\nvalue = 5.9792"] ;
251 -> 252 ;
253 [label="mse = -0.0\nsamples = 1\nvalue = 3.0"] ;
251 -> 253 ;
254 [label="mse = 0.0\nsamples = 1\nvalue = 2.7"] ;
250 -> 254 ;
255 [label="mse = -0.0\nsamples = 1\nvalue = 2.5"] ;
243 -> 255 ;
256 [label="mse = 0.0\nsamples = 1\nvalue = 2.5"] ;
242 -> 256 ;
257 [label="X[11056] <= 0.5\nmse = 0.0225\nsamples = 2\nvalue = 3.45"] ;
241 -> 257 ;
258 [label="mse = 0.0\nsamples = 1\nvalue = 3.6"] ;
257 -> 258 ;
259 [label="mse = -0.0\nsamples = 1\nvalue = 3.3"] ;
257 -> 259 ;
260 [label="mse = 0.0\nsamples = 2\nvalue = 3.3"] ;
240 -> 260 ;
261 [label="mse = -0.0\nsamples = 1\nvalue = 2.1"] ;
239 -> 261 ;
262 [label="X[3524] <= 0.5\nmse = 0.0025\nsamples = 2\nvalue = 3.25"] ;
238 -> 262 ;
263 [label="mse = 0.0\nsamples = 1\nvalue = 3.2"] ;
262 -> 263 ;
264 [label="mse = 0.0\nsamples = 1\nvalue = 3.3"] ;
262 -> 264 ;
265 [label="X[0] <= 84.0\nmse = 0.16\nsamples = 2\nvalue = 3.1"] ;
237 -> 265 ;
266 [label="mse = 0.0\nsamples = 1\nvalue = 3.5"] ;
265 -> 266 ;
267 [label="mse = -0.0\nsamples = 1\nvalue = 2.7"] ;
265 -> 267 ;
268 [label="X[195] <= 0.5\nmse = 0.8411\nsamples = 32\nvalue = 7.1219"] ;
236 -> 268 ;
269 [label="X[11051] <= 0.5\nmse = 0.6393\nsamples = 31\nvalue = 7.2065"] ;
268 -> 269 ;
270 [label="X[1766] <= 0.5\nmse = 0.5449\nsamples = 26\nvalue = 7.0231"] ;
269 -> 270 ;
271 [label="X[9815] <= 0.5\nmse = 0.4431\nsamples = 24\nvalue = 6.9167"] ;
270 -> 271 ;
272 [label="X[1] <= 121417176.0\nmse = 0.3286\nsamples = 23\nvalue = 6.9913"] ;
271 -> 272 ;
273 [label="X[7662] <= 0.5\nmse = 0.2555\nsamples = 7\nvalue = 7.2857"] ;
272 -> 273 ;
274 [label="X[0] <= 90.0\nmse = 0.1092\nsamples = 6\nvalue = 7.45"] ;
273 -> 274 ;
275 [label="X[4966] <= 0.5\nmse = 0.0425\nsamples = 4\nvalue = 7.25"] ;
274 -> 275 ;
276 [label="X[8104] <= 0.5\nmse = 0.0022\nsamples = 3\nvalue = 7.3667"] ;
275 -> 276 ;
277 [label="mse = 0.0\nsamples = 2\nvalue = 7.4"] ;
276 -> 277 ;
278 [label="mse = -0.0\nsamples = 1\nvalue = 7.3"] ;
276 -> 278 ;
279 [label="mse = 0.0\nsamples = 1\nvalue = 6.9"] ;
275 -> 279 ;
280 [label="X[3643] <= 0.5\nmse = 0.0025\nsamples = 2\nvalue = 7.85"] ;
274 -> 280 ;
281 [label="mse = 0.0\nsamples = 1\nvalue = 7.9"] ;
280 -> 281 ;
282 [label="mse = 0.0\nsamples = 1\nvalue = 7.8"] ;
280 -> 282 ;
283 [label="mse = -0.0\nsamples = 1\nvalue = 6.3"] ;
273 -> 283 ;
284 [label="X[1819] <= 0.5\nmse = 0.3061\nsamples = 16\nvalue = 6.8625"] ;
272 -> 284 ;
285 [label="X[972] <= 0.5\nmse = 0.2596\nsamples = 14\nvalue = 6.7571"] ;
284 -> 285 ;
286 [label="X[2362] <= 0.5\nmse = 0.1956\nsamples = 12\nvalue = 6.6333"] ;
285 -> 286 ;
287 [label="X[0] <= 97.5\nmse = 0.1005\nsamples = 11\nvalue = 6.5364"] ;
286 -> 287 ;
288 [label="X[2413] <= 0.5\nmse = 0.0464\nsamples = 10\nvalue = 6.46"] ;
287 -> 288 ;
289 [label="mse = 0.0356\nsamples = 9\nvalue = 6.5"] ;
288 -> 289 ;
290 [label="mse = 0.0\nsamples = 1\nvalue = 6.1"] ;
288 -> 290 ;
291 [label="mse = 0.0\nsamples = 1\nvalue = 7.3"] ;
287 -> 291 ;
292 [label="mse = -0.0\nsamples = 1\nvalue = 7.7"] ;
286 -> 292 ;
293 [label="mse = 0.0\nsamples = 2\nvalue = 7.5"] ;
285 -> 293 ;
294 [label="X[1] <= 237275648.0\nmse = 0.01\nsamples = 2\nvalue = 7.6"] ;
284 -> 294 ;
295 [label="mse = 0.0\nsamples = 1\nvalue = 7.7"] ;
294 -> 295 ;
296 [label="mse = 0.0\nsamples = 1\nvalue = 7.5"] ;
294 -> 296 ;
297 [label="mse = 0.0\nsamples = 1\nvalue = 5.2"] ;
271 -> 297 ;
298 [label="mse = -0.0\nsamples = 2\nvalue = 8.3"] ;
270 -> 298 ;
299 [label="X[0] <= 78.0\nmse = 0.0464\nsamples = 5\nvalue = 8.16"] ;
269 -> 299 ;
300 [label="X[1] <= 269790016.0\nmse = 0.01\nsamples = 2\nvalue = 8.4"] ;
299 -> 300 ;
301 [label="mse = 0.0\nsamples = 1\nvalue = 8.3"] ;
300 -> 301 ;
302 [label="mse = 0.0\nsamples = 1\nvalue = 8.5"] ;
300 -> 302 ;
303 [label="X[1] <= 165365408.0\nmse = 0.0067\nsamples = 3\nvalue = 8.0"] ;
299 -> 303 ;
304 [label="mse = 0.0\nsamples = 1\nvalue = 7.9"] ;
303 -> 304 ;
305 [label="X[5937] <= 0.5\nmse = 0.0025\nsamples = 2\nvalue = 8.05"] ;
303 -> 305 ;
306 [label="mse = 0.0\nsamples = 1\nvalue = 8.0"] ;
305 -> 306 ;
307 [label="mse = -0.0\nsamples = 1\nvalue = 8.1"] ;
305 -> 307 ;
308 [label="mse = 0.0\nsamples = 1\nvalue = 4.5"] ;
268 -> 308 ;
309 [label="X[1] <= 171786784.0\nmse = 0.7879\nsamples = 518\nvalue = 6.5892"] ;
235 -> 309 ;
310 [label="X[9411] <= 0.5\nmse = 0.7718\nsamples = 506\nvalue = 6.5636"] ;
309 -> 310 ;
311 [label="X[1943] <= 0.5\nmse = 0.7534\nsamples = 505\nvalue = 6.5699"] ;
310 -> 311 ;
312 [label="X[5934] <= 0.5\nmse = 0.7362\nsamples = 504\nvalue = 6.576"] ;
311 -> 312 ;
313 [label="X[6323] <= 0.5\nmse = 0.7188\nsamples = 503\nvalue = 6.5821"] ;
312 -> 313 ;
314 [label="X[6113] <= 0.5\nmse = 0.7025\nsamples = 502\nvalue = 6.588"] ;
313 -> 314 ;
315 [label="X[7517] <= 0.5\nmse = 0.6905\nsamples = 500\nvalue = 6.5952"] ;
314 -> 315 ;
316 [label="X[515] <= 0.5\nmse = 0.6794\nsamples = 499\nvalue = 6.6002"] ;
315 -> 316 ;
317 [label="X[9985] <= 0.5\nmse = 0.6682\nsamples = 498\nvalue = 6.6052"] ;
316 -> 317 ;
318 [label="X[318] <= 0.5\nmse = 0.6578\nsamples = 497\nvalue = 6.6101"] ;
317 -> 318 ;
319 [label="X[3546] <= 0.5\nmse = 0.6489\nsamples = 495\nvalue = 6.6032"] ;
318 -> 319 ;
320 [label="mse = 0.6395\nsamples = 494\nvalue = 6.6079"] ;
319 -> 320 ;
321 [label="mse = 0.0\nsamples = 1\nvalue = 4.3"] ;
319 -> 321 ;
322 [label="mse = -0.0\nsamples = 2\nvalue = 8.3"] ;
318 -> 322 ;
323 [label="mse = 0.0\nsamples = 1\nvalue = 4.2"] ;
317 -> 323 ;
324 [label="mse = -0.0\nsamples = 1\nvalue = 4.1"] ;
316 -> 324 ;
325 [label="mse = 0.0\nsamples = 1\nvalue = 4.1"] ;
315 -> 325 ;
326 [label="X[9621] <= 0.5\nmse = 0.49\nsamples = 2\nvalue = 4.8"] ;
314 -> 326 ;
327 [label="mse = 0.0\nsamples = 1\nvalue = 4.1"] ;
326 -> 327 ;
328 [label="mse = 0.0\nsamples = 1\nvalue = 5.5"] ;
326 -> 328 ;
329 [label="mse = -0.0\nsamples = 1\nvalue = 3.6"] ;
313 -> 329 ;
330 [label="mse = -0.0\nsamples = 1\nvalue = 3.5"] ;
312 -> 330 ;
331 [label="mse = 0.0\nsamples = 1\nvalue = 3.5"] ;
311 -> 331 ;
332 [label="mse = 0.0\nsamples = 1\nvalue = 3.4"] ;
310 -> 332 ;
333 [label="X[4826] <= 0.5\nmse = 0.2806\nsamples = 12\nvalue = 7.6667"] ;
309 -> 333 ;
334 [label="X[11051] <= 0.5\nmse = 0.1208\nsamples = 11\nvalue = 7.7909"] ;
333 -> 334 ;
335 [label="X[7220] <= 0.5\nmse = 0.0899\nsamples = 9\nvalue = 7.6889"] ;
334 -> 335 ;
336 [label="X[0] <= 105.5\nmse = 0.0675\nsamples = 8\nvalue = 7.75"] ;
335 -> 336 ;
337 [label="X[0] <= 102.5\nmse = 0.0325\nsamples = 4\nvalue = 7.55"] ;
336 -> 337 ;
338 [label="X[7641] <= 0.5\nmse = 0.01\nsamples = 2\nvalue = 7.7"] ;
337 -> 338 ;
339 [label="mse = 0.0\nsamples = 1\nvalue = 7.6"] ;
338 -> 339 ;
340 [label="mse = 0.0\nsamples = 1\nvalue = 7.8"] ;
338 -> 340 ;
341 [label="X[8047] <= 0.5\nmse = 0.01\nsamples = 2\nvalue = 7.4"] ;
337 -> 341 ;
342 [label="mse = 0.0\nsamples = 1\nvalue = 7.3"] ;
341 -> 342 ;
343 [label="mse = -0.0\nsamples = 1\nvalue = 7.5"] ;
341 -> 343 ;
344 [label="X[1] <= 247907520.0\nmse = 0.0225\nsamples = 4\nvalue = 7.95"] ;
336 -> 344 ;
345 [label="mse = 0.0\nsamples = 2\nvalue = 7.8"] ;
344 -> 345 ;
346 [label="mse = -0.0\nsamples = 2\nvalue = 8.1"] ;
344 -> 346 ;
347 [label="mse = -0.0\nsamples = 1\nvalue = 7.2"] ;
335 -> 347 ;
348 [label="X[8453] <= 0.5\nmse = 0.0025\nsamples = 2\nvalue = 8.25"] ;
334 -> 348 ;
349 [label="mse = 0.0\nsamples = 1\nvalue = 8.2"] ;
348 -> 349 ;
350 [label="mse = -0.0\nsamples = 1\nvalue = 8.3"] ;
348 -> 350 ;
351 [label="mse = -0.0\nsamples = 1\nvalue = 6.3"] ;
333 -> 351 ;
352 [label="X[0] <= 143.5\nmse = 0.8424\nsamples = 1425\nvalue = 6.8981"] ;
0 -> 352 [labeldistance=2.5, labelangle=-45, headlabel="False"] ;
353 [label="X[1] <= -5080220.0\nmse = 0.7976\nsamples = 1199\nvalue = 6.7955"] ;
352 -> 353 ;
354 [label="X[9250] <= 0.5\nmse = 0.682\nsamples = 434\nvalue = 6.5058"] ;
353 -> 354 ;
355 [label="X[4770] <= 0.5\nmse = 0.6445\nsamples = 433\nvalue = 6.5152"] ;
354 -> 355 ;
356 [label="X[843] <= 0.5\nmse = 0.6122\nsamples = 432\nvalue = 6.5241"] ;
355 -> 356 ;
357 [label="X[0] <= 118.5\nmse = 0.5916\nsamples = 429\nvalue = 6.511"] ;
356 -> 357 ;
358 [label="X[1088] <= 0.5\nmse = 0.5085\nsamples = 168\nvalue = 6.3298"] ;
357 -> 358 ;
359 [label="X[10029] <= 0.5\nmse = 0.4699\nsamples = 167\nvalue = 6.3455"] ;
358 -> 359 ;
360 [label="X[2880] <= 0.5\nmse = 0.4448\nsamples = 166\nvalue = 6.3584"] ;
359 -> 360 ;
361 [label="X[1862] <= 0.5\nmse = 0.4217\nsamples = 165\nvalue = 6.3709"] ;
360 -> 361 ;
362 [label="X[1] <= -163974208.0\nmse = 0.4015\nsamples = 163\nvalue = 6.3871"] ;
361 -> 362 ;
363 [label="X[1] <= -1422792320.0\nmse = 0.0689\nsamples = 3\nvalue = 7.3333"] ;
362 -> 363 ;
364 [label="mse = 0.0\nsamples = 1\nvalue = 7.7"] ;
363 -> 364 ;
365 [label="X[11057] <= 0.5\nmse = 0.0025\nsamples = 2\nvalue = 7.15"] ;
363 -> 365 ;
366 [label="mse = 0.0\nsamples = 1\nvalue = 7.1"] ;
365 -> 366 ;
367 [label="mse = -0.0\nsamples = 1\nvalue = 7.2"] ;
365 -> 367 ;
368 [label="X[1] <= -31376384.0\nmse = 0.3906\nsamples = 160\nvalue = 6.3694"] ;
362 -> 368 ;
369 [label="X[6183] <= 0.5\nmse = 0.4239\nsamples = 38\nvalue = 6.1079"] ;
368 -> 369 ;
370 [label="X[11059] <= 0.5\nmse = 0.3462\nsamples = 37\nvalue = 6.0595"] ;
369 -> 370 ;
371 [label="mse = 0.2336\nsamples = 27\nvalue = 5.9222"] ;
370 -> 371 ;
372 [label="mse = 0.4621\nsamples = 10\nvalue = 6.43"] ;
370 -> 372 ;
373 [label="mse = -0.0\nsamples = 1\nvalue = 7.9"] ;
369 -> 373 ;
374 [label="X[3627] <= 0.5\nmse = 0.3523\nsamples = 122\nvalue = 6.4508"] ;
368 -> 374 ;
375 [label="X[11027] <= 0.5\nmse = 0.3325\nsamples = 121\nvalue = 6.4645"] ;
374 -> 375 ;
376 [label="mse = 0.3222\nsamples = 119\nvalue = 6.4807"] ;
375 -> 376 ;
377 [label="mse = 0.0\nsamples = 2\nvalue = 5.5"] ;
375 -> 377 ;
378 [label="mse = 0.0\nsamples = 1\nvalue = 4.8"] ;
374 -> 378 ;
379 [label="X[11057] <= 0.5\nmse = 0.3025\nsamples = 2\nvalue = 5.05"] ;
361 -> 379 ;
380 [label="mse = 0.0\nsamples = 1\nvalue = 5.6"] ;
379 -> 380 ;
381 [label="mse = 0.0\nsamples = 1\nvalue = 4.5"] ;
379 -> 381 ;
382 [label="mse = 0.0\nsamples = 1\nvalue = 4.3"] ;
360 -> 382 ;
383 [label="mse = 0.0\nsamples = 1\nvalue = 4.2"] ;
359 -> 383 ;
384 [label="mse = 0.0\nsamples = 1\nvalue = 3.7"] ;
358 -> 384 ;
385 [label="X[7443] <= 0.5\nmse = 0.6103\nsamples = 261\nvalue = 6.6276"] ;
357 -> 385 ;
386 [label="X[9631] <= 0.5\nmse = 0.5795\nsamples = 260\nvalue = 6.6388"] ;
385 -> 386 ;
387 [label="X[119] <= 0.5\nmse = 0.5483\nsamples = 259\nvalue = 6.6502"] ;
386 -> 387 ;
388 [label="X[1] <= -20778882.0\nmse = 0.5238\nsamples = 257\nvalue = 6.6646"] ;
387 -> 388 ;
389 [label="X[993] <= 0.5\nmse = 0.4751\nsamples = 118\nvalue = 6.5034"] ;
388 -> 389 ;
390 [label="X[11054] <= 0.5\nmse = 0.4392\nsamples = 116\nvalue = 6.4767"] ;
389 -> 390 ;
391 [label="X[5771] <= 0.5\nmse = 0.4121\nsamples = 115\nvalue = 6.493"] ;
390 -> 391 ;
392 [label="X[1] <= -143251728.0\nmse = 0.3873\nsamples = 114\nvalue = 6.5088"] ;
391 -> 392 ;
393 [label="mse = 0.2025\nsamples = 2\nvalue = 7.65"] ;
392 -> 393 ;
394 [label="mse = 0.3669\nsamples = 112\nvalue = 6.4884"] ;
392 -> 394 ;
395 [label="mse = -0.0\nsamples = 1\nvalue = 4.7"] ;
391 -> 395 ;
396 [label="mse = -0.0\nsamples = 1\nvalue = 4.6"] ;
390 -> 396 ;
397 [label="X[2882] <= 0.5\nmse = 0.1225\nsamples = 2\nvalue = 8.05"] ;
389 -> 397 ;
398 [label="mse = 0.0\nsamples = 1\nvalue = 8.4"] ;
397 -> 398 ;
399 [label="mse = 0.0\nsamples = 1\nvalue = 7.7"] ;
397 -> 399 ;
400 [label="X[9791] <= 0.5\nmse = 0.5243\nsamples = 139\nvalue = 6.8014"] ;
388 -> 400 ;
401 [label="X[7999] <= 0.5\nmse = 0.4895\nsamples = 138\nvalue = 6.8181"] ;
400 -> 401 ;
402 [label="X[2122] <= 0.5\nmse = 0.4535\nsamples = 137\nvalue = 6.835"] ;
401 -> 402 ;
403 [label="X[4561] <= 0.5\nmse = 0.4346\nsamples = 136\nvalue = 6.8478"] ;
402 -> 403 ;
404 [label="mse = 0.415\nsamples = 135\nvalue = 6.8607"] ;
403 -> 404 ;
405 [label="mse = -0.0\nsamples = 1\nvalue = 5.1"] ;
403 -> 405 ;
406 [label="mse = -0.0\nsamples = 1\nvalue = 5.1"] ;
402 -> 406 ;
407 [label="mse = 0.0\nsamples = 1\nvalue = 4.5"] ;
401 -> 407 ;
408 [label="mse = -0.0\nsamples = 1\nvalue = 4.5"] ;
400 -> 408 ;
409 [label="X[0] <= 124.5\nmse = 0.25\nsamples = 2\nvalue = 4.8"] ;
387 -> 409 ;
410 [label="mse = 0.0\nsamples = 1\nvalue = 5.3"] ;
409 -> 410 ;
411 [label="mse = 0.0\nsamples = 1\nvalue = 4.3"] ;
409 -> 411 ;
412 [label="mse = -0.0\nsamples = 1\nvalue = 3.7"] ;
386 -> 412 ;
413 [label="mse = 0.0\nsamples = 1\nvalue = 3.7"] ;
385 -> 413 ;
414 [label="X[7022] <= 0.5\nmse = 0.0267\nsamples = 3\nvalue = 8.4"] ;
356 -> 414 ;
415 [label="X[11056] <= 0.5\nmse = 0.01\nsamples = 2\nvalue = 8.3"] ;
414 -> 415 ;
416 [label="mse = 0.0\nsamples = 1\nvalue = 8.4"] ;
415 -> 416 ;
417 [label="mse = -0.0\nsamples = 1\nvalue = 8.2"] ;
415 -> 417 ;
418 [label="mse = -0.0\nsamples = 1\nvalue = 8.6"] ;
414 -> 418 ;
419 [label="mse = 0.0\nsamples = 1\nvalue = 2.7"] ;
355 -> 419 ;
420 [label="mse = 0.0\nsamples = 1\nvalue = 2.4"] ;
354 -> 420 ;
421 [label="X[7910] <= 0.5\nmse = 0.7885\nsamples = 765\nvalue = 6.9599"] ;
353 -> 421 ;
422 [label="X[7307] <= 0.5\nmse = 0.7519\nsamples = 764\nvalue = 6.9669"] ;
421 -> 422 ;
423 [label="X[2300] <= 0.5\nmse = 0.723\nsamples = 763\nvalue = 6.9731"] ;
422 -> 423 ;
424 [label="X[11057] <= 0.5\nmse = 0.698\nsamples = 758\nvalue = 6.9863"] ;
423 -> 424 ;
425 [label="X[7925] <= 0.5\nmse = 0.6464\nsamples = 499\nvalue = 7.0918"] ;
424 -> 425 ;
426 [label="X[836] <= 0.5\nmse = 0.614\nsamples = 498\nvalue = 7.1"] ;
425 -> 426 ;
427 [label="X[2088] <= 0.5\nmse = 0.5876\nsamples = 497\nvalue = 7.1074"] ;
426 -> 427 ;
428 [label="X[1] <= 84156592.0\nmse = 0.5639\nsamples = 496\nvalue = 7.1145"] ;
427 -> 428 ;
429 [label="X[6589] <= 0.5\nmse = 0.5357\nsamples = 449\nvalue = 7.0699"] ;
428 -> 429 ;
430 [label="X[8215] <= 0.5\nmse = 0.5198\nsamples = 448\nvalue = 7.0761"] ;
429 -> 430 ;
431 [label="X[11050] <= 0.5\nmse = 0.506\nsamples = 447\nvalue = 7.0819"] ;
430 -> 431 ;
432 [label="X[701] <= 0.5\nmse = 0.5025\nsamples = 430\nvalue = 7.0612"] ;
431 -> 432 ;
433 [label="mse = 0.4928\nsamples = 429\nvalue = 7.0662"] ;
432 -> 433 ;
434 [label="mse = -0.0\nsamples = 1\nvalue = 4.9"] ;
432 -> 434 ;
435 [label="X[8569] <= 0.5\nmse = 0.31\nsamples = 17\nvalue = 7.6059"] ;
431 -> 435 ;
436 [label="mse = 0.2181\nsamples = 16\nvalue = 7.525"] ;
435 -> 436 ;
437 [label="mse = -0.0\nsamples = 1\nvalue = 8.9"] ;
435 -> 437 ;
438 [label="mse = -0.0\nsamples = 1\nvalue = 4.5"] ;
430 -> 438 ;
439 [label="mse = -0.0\nsamples = 1\nvalue = 4.3"] ;
429 -> 439 ;
440 [label="X[3274] <= 0.5\nmse = 0.633\nsamples = 47\nvalue = 7.5404"] ;
428 -> 440 ;
441 [label="X[8369] <= 0.5\nmse = 0.3839\nsamples = 46\nvalue = 7.6152"] ;
440 -> 441 ;
442 [label="X[3844] <= 0.5\nmse = 0.3403\nsamples = 45\nvalue = 7.6489"] ;
441 -> 442 ;
443 [label="X[0] <= 124.5\nmse = 0.3021\nsamples = 43\nvalue = 7.6977"] ;
442 -> 443 ;
444 [label="mse = 0.2933\nsamples = 25\nvalue = 7.516"] ;
443 -> 444 ;
445 [label="mse = 0.2047\nsamples = 18\nvalue = 7.95"] ;
443 -> 445 ;
446 [label="X[5046] <= 0.5\nmse = 0.01\nsamples = 2\nvalue = 6.6"] ;
442 -> 446 ;
447 [label="mse = 0.0\nsamples = 1\nvalue = 6.5"] ;
446 -> 447 ;
448 [label="mse = 0.0\nsamples = 1\nvalue = 6.7"] ;
446 -> 448 ;
449 [label="mse = -0.0\nsamples = 1\nvalue = 6.1"] ;
441 -> 449 ;
450 [label="mse = -0.0\nsamples = 1\nvalue = 4.1"] ;
440 -> 450 ;
451 [label="mse = -0.0\nsamples = 1\nvalue = 3.6"] ;
427 -> 451 ;
452 [label="mse = -0.0\nsamples = 1\nvalue = 3.4"] ;
426 -> 452 ;
453 [label="mse = 0.0\nsamples = 1\nvalue = 3.0"] ;
425 -> 453 ;
454 [label="X[0] <= 122.5\nmse = 0.7348\nsamples = 259\nvalue = 6.783"] ;
424 -> 454 ;
455 [label="X[6151] <= 0.5\nmse = 0.7161\nsamples = 139\nvalue = 6.5734"] ;
454 -> 455 ;
456 [label="X[1152] <= 0.5\nmse = 0.643\nsamples = 138\nvalue = 6.5971"] ;
455 -> 456 ;
457 [label="X[1568] <= 0.5\nmse = 0.6122\nsamples = 137\nvalue = 6.6131"] ;
456 -> 457 ;
458 [label="X[305] <= 0.5\nmse = 0.5867\nsamples = 136\nvalue = 6.6279"] ;
457 -> 458 ;
459 [label="X[3710] <= 0.5\nmse = 0.5646\nsamples = 134\nvalue = 6.6493"] ;
458 -> 459 ;
460 [label="X[8380] <= 0.5\nmse = 0.5449\nsamples = 132\nvalue = 6.6288"] ;
459 -> 460 ;
461 [label="X[959] <= 0.5\nmse = 0.5261\nsamples = 131\nvalue = 6.642"] ;
460 -> 461 ;
462 [label="mse = 0.5066\nsamples = 130\nvalue = 6.6554"] ;
461 -> 462 ;
463 [label="mse = 0.0\nsamples = 1\nvalue = 4.9"] ;
461 -> 463 ;
464 [label="mse = 0.0\nsamples = 1\nvalue = 4.9"] ;
460 -> 464 ;
465 [label="X[0] <= 117.0\nmse = 0.01\nsamples = 2\nvalue = 8.0"] ;
459 -> 465 ;
466 [label="mse = 0.0\nsamples = 1\nvalue = 8.1"] ;
465 -> 466 ;
467 [label="mse = 0.0\nsamples = 1\nvalue = 7.9"] ;
465 -> 467 ;
468 [label="mse = 0.0\nsamples = 2\nvalue = 5.2"] ;
458 -> 468 ;
469 [label="mse = -0.0\nsamples = 1\nvalue = 4.6"] ;
457 -> 469 ;
470 [label="mse = 0.0\nsamples = 1\nvalue = 4.4"] ;
456 -> 470 ;
471 [label="mse = 0.0\nsamples = 1\nvalue = 3.3"] ;
455 -> 471 ;
472 [label="X[7218] <= 0.5\nmse = 0.6467\nsamples = 120\nvalue = 7.0258"] ;
454 -> 472 ;
473 [label="X[6161] <= 0.5\nmse = 0.5408\nsamples = 119\nvalue = 7.0563"] ;
472 -> 473 ;
474 [label="X[3870] <= 0.5\nmse = 0.4572\nsamples = 117\nvalue = 7.0957"] ;
473 -> 474 ;
475 [label="X[1] <= 97378792.0\nmse = 0.4251\nsamples = 113\nvalue = 7.131"] ;
474 -> 475 ;
476 [label="X[9976] <= 0.5\nmse = 0.4288\nsamples = 88\nvalue = 7.0432"] ;
475 -> 476 ;
477 [label="X[5506] <= 0.5\nmse = 0.4018\nsamples = 87\nvalue = 7.0241"] ;
476 -> 477 ;
478 [label="X[6004] <= 0.5\nmse = 0.3755\nsamples = 86\nvalue = 7.043"] ;
477 -> 478 ;
479 [label="mse = 0.3579\nsamples = 83\nvalue = 7.0735"] ;
478 -> 479 ;
480 [label="mse = 0.1267\nsamples = 3\nvalue = 6.2"] ;
478 -> 480 ;
481 [label="mse = -0.0\nsamples = 1\nvalue = 5.4"] ;
477 -> 481 ;
482 [label="mse = -0.0\nsamples = 1\nvalue = 8.7"] ;
476 -> 482 ;
483 [label="X[0] <= 125.5\nmse = 0.2896\nsamples = 25\nvalue = 7.44"] ;
475 -> 483 ;
484 [label="X[0] <= 123.5\nmse = 0.015\nsamples = 4\nvalue = 6.9"] ;
483 -> 484 ;
485 [label="mse = 0.0\nsamples = 1\nvalue = 6.7"] ;
484 -> 485 ;
486 [label="X[6352] <= 0.5\nmse = 0.0022\nsamples = 3\nvalue = 6.9667"] ;
484 -> 486 ;
487 [label="mse = 0.0\nsamples = 2\nvalue = 7.0"] ;
486 -> 487 ;
488 [label="mse = 0.0\nsamples = 1\nvalue = 6.9"] ;
486 -> 488 ;
489 [label="X[9636] <= 0.5\nmse = 0.2758\nsamples = 21\nvalue = 7.5429"] ;
483 -> 489 ;
490 [label="X[6908] <= 0.5\nmse = 0.221\nsamples = 20\nvalue = 7.6"] ;
489 -> 490 ;
491 [label="mse = 0.1656\nsamples = 19\nvalue = 7.6579"] ;
490 -> 491 ;
492 [label="mse = 0.0\nsamples = 1\nvalue = 6.5"] ;
490 -> 492 ;
493 [label="mse = -0.0\nsamples = 1\nvalue = 6.4"] ;
489 -> 493 ;
494 [label="X[6442] <= 0.5\nmse = 0.335\nsamples = 4\nvalue = 6.1"] ;
474 -> 494 ;
495 [label="X[1702] <= 0.5\nmse = 0.0867\nsamples = 3\nvalue = 6.4"] ;
494 -> 495 ;
496 [label="X[4667] <= 0.5\nmse = 0.01\nsamples = 2\nvalue = 6.6"] ;
495 -> 496 ;
497 [label="mse = 0.0\nsamples = 1\nvalue = 6.7"] ;
496 -> 497 ;
498 [label="mse = 0.0\nsamples = 1\nvalue = 6.5"] ;
496 -> 498 ;
499 [label="mse = 0.0\nsamples = 1\nvalue = 6.0"] ;
495 -> 499 ;
500 [label="mse = 0.0\nsamples = 1\nvalue = 5.2"] ;
494 -> 500 ;
501 [label="X[353] <= 0.5\nmse = 0.0225\nsamples = 2\nvalue = 4.75"] ;
473 -> 501 ;
502 [label="mse = 0.0\nsamples = 1\nvalue = 4.9"] ;
501 -> 502 ;
503 [label="mse = 0.0\nsamples = 1\nvalue = 4.6"] ;
501 -> 503 ;
504 [label="mse = -0.0\nsamples = 1\nvalue = 3.4"] ;
472 -> 504 ;
505 [label="X[1] <= 38209696.0\nmse = 0.5136\nsamples = 5\nvalue = 4.98"] ;
423 -> 505 ;
506 [label="mse = 0.0\nsamples = 1\nvalue = 6.0"] ;
505 -> 506 ;
507 [label="X[9524] <= 0.5\nmse = 0.3169\nsamples = 4\nvalue = 4.725"] ;
505 -> 507 ;
508 [label="X[1] <= 42847864.0\nmse = 0.0822\nsamples = 3\nvalue = 4.4333"] ;
507 -> 508 ;
509 [label="X[0] <= 117.0\nmse = 0.0225\nsamples = 2\nvalue = 4.25"] ;
508 -> 509 ;
510 [label="mse = 0.0\nsamples = 1\nvalue = 4.1"] ;
509 -> 510 ;
511 [label="mse = 0.0\nsamples = 1\nvalue = 4.4"] ;
509 -> 511 ;
512 [label="mse = 0.0\nsamples = 1\nvalue = 4.8"] ;
508 -> 512 ;
513 [label="mse = 0.0\nsamples = 1\nvalue = 5.6"] ;
507 -> 513 ;
514 [label="mse = 0.0\nsamples = 1\nvalue = 2.2"] ;
422 -> 514 ;
515 [label="mse = 0.0\nsamples = 1\nvalue = 1.6"] ;
421 -> 515 ;
516 [label="X[1] <= -32054300.0\nmse = 0.7282\nsamples = 226\nvalue = 7.4425"] ;
352 -> 516 ;
517 [label="X[0] <= 147.0\nmse = 0.5128\nsamples = 29\nvalue = 6.5414"] ;
516 -> 517 ;
518 [label="X[1] <= -106995392.0\nmse = 0.14\nsamples = 3\nvalue = 7.7"] ;
517 -> 518 ;
519 [label="mse = 0.0\nsamples = 1\nvalue = 8.2"] ;
518 -> 519 ;
520 [label="X[11059] <= 0.5\nmse = 0.0225\nsamples = 2\nvalue = 7.45"] ;
518 -> 520 ;
521 [label="mse = 0.0\nsamples = 1\nvalue = 7.3"] ;
520 -> 521 ;
522 [label="mse = 0.0\nsamples = 1\nvalue = 7.6"] ;
520 -> 522 ;
523 [label="X[2427] <= 0.5\nmse = 0.383\nsamples = 26\nvalue = 6.4077"] ;
517 -> 523 ;
524 [label="X[3113] <= 0.5\nmse = 0.3057\nsamples = 25\nvalue = 6.348"] ;
523 -> 524 ;
525 [label="X[2266] <= 0.5\nmse = 0.2508\nsamples = 24\nvalue = 6.4"] ;
524 -> 525 ;
526 [label="X[7355] <= 0.5\nmse = 0.2068\nsamples = 23\nvalue = 6.3522"] ;
525 -> 526 ;
527 [label="X[1702] <= 0.5\nmse = 0.1641\nsamples = 22\nvalue = 6.3045"] ;
526 -> 527 ;
528 [label="X[1] <= -34128528.0\nmse = 0.1396\nsamples = 21\nvalue = 6.3429"] ;
527 -> 528 ;
529 [label="X[5622] <= 0.5\nmse = 0.1258\nsamples = 19\nvalue = 6.3947"] ;
528 -> 529 ;
530 [label="X[1] <= -55611320.0\nmse = 0.112\nsamples = 18\nvalue = 6.4278"] ;
529 -> 530 ;
531 [label="X[1] <= -79189464.0\nmse = 0.0761\nsamples = 10\nvalue = 6.27"] ;
530 -> 531 ;
532 [label="X[1] <= -548135168.0\nmse = 0.0714\nsamples = 6\nvalue = 6.4167"] ;
531 -> 532 ;
533 [label="mse = 0.0\nsamples = 1\nvalue = 6.0"] ;
532 -> 533 ;
534 [label="X[1302] <= 0.5\nmse = 0.044\nsamples = 5\nvalue = 6.5"] ;
532 -> 534 ;
535 [label="mse = 0.005\nsamples = 4\nvalue = 6.6"] ;
534 -> 535 ;
536 [label="mse = -0.0\nsamples = 1\nvalue = 6.1"] ;
534 -> 536 ;
537 [label="X[2739] <= 0.5\nmse = 0.0025\nsamples = 4\nvalue = 6.05"] ;
531 -> 537 ;
538 [label="mse = 0.0\nsamples = 2\nvalue = 6.0"] ;
537 -> 538 ;
539 [label="mse = 0.0\nsamples = 2\nvalue = 6.1"] ;
537 -> 539 ;
540 [label="X[6707] <= 0.5\nmse = 0.0869\nsamples = 8\nvalue = 6.625"] ;
530 -> 540 ;
541 [label="X[9210] <= 0.5\nmse = 0.0355\nsamples = 7\nvalue = 6.7143"] ;
540 -> 541 ;
542 [label="X[8895] <= 0.5\nmse = 0.0081\nsamples = 6\nvalue = 6.7833"] ;
541 -> 542 ;
543 [label="mse = 0.0016\nsamples = 5\nvalue = 6.82"] ;
542 -> 543 ;
544 [label="mse = -0.0\nsamples = 1\nvalue = 6.6"] ;
542 -> 544 ;
545 [label="mse = 0.0\nsamples = 1\nvalue = 6.3"] ;
541 -> 545 ;
546 [label="mse = 0.0\nsamples = 1\nvalue = 6.0"] ;
540 -> 546 ;
547 [label="mse = 0.0\nsamples = 1\nvalue = 5.8"] ;
529 -> 547 ;
548 [label="X[1975] <= 0.5\nmse = 0.0025\nsamples = 2\nvalue = 5.85"] ;
528 -> 548 ;
549 [label="mse = 0.0\nsamples = 1\nvalue = 5.9"] ;
548 -> 549 ;
550 [label="mse = 0.0\nsamples = 1\nvalue = 5.8"] ;
548 -> 550 ;
551 [label="mse = -0.0\nsamples = 1\nvalue = 5.5"] ;
527 -> 551 ;
552 [label="mse = 0.0\nsamples = 1\nvalue = 7.4"] ;
526 -> 552 ;
553 [label="mse = 0.0\nsamples = 1\nvalue = 7.5"] ;
525 -> 553 ;
554 [label="mse = -0.0\nsamples = 1\nvalue = 5.1"] ;
524 -> 554 ;
555 [label="mse = -0.0\nsamples = 1\nvalue = 7.9"] ;
523 -> 555 ;
556 [label="X[6276] <= 0.5\nmse = 0.6228\nsamples = 197\nvalue = 7.5751"] ;
516 -> 556 ;
557 [label="X[2326] <= 0.5\nmse = 0.571\nsamples = 196\nvalue = 7.5918"] ;
556 -> 557 ;
558 [label="X[2795] <= 0.5\nmse = 0.5337\nsamples = 195\nvalue = 7.6062"] ;
557 -> 558 ;
559 [label="X[0] <= 177.5\nmse = 0.5013\nsamples = 194\nvalue = 7.6196"] ;
558 -> 559 ;
560 [label="X[375] <= 0.5\nmse = 0.5185\nsamples = 147\nvalue = 7.5238"] ;
559 -> 560 ;
561 [label="X[2086] <= 0.5\nmse = 0.4905\nsamples = 143\nvalue = 7.4902"] ;
560 -> 561 ;
562 [label="X[3089] <= 0.5\nmse = 0.463\nsamples = 142\nvalue = 7.5049"] ;
561 -> 562 ;
563 [label="X[4089] <= 0.5\nmse = 0.4427\nsamples = 140\nvalue = 7.5243"] ;
562 -> 563 ;
564 [label="X[9494] <= 0.5\nmse = 0.419\nsamples = 139\nvalue = 7.5381"] ;
563 -> 564 ;
565 [label="X[1] <= -6682057.0\nmse = 0.3986\nsamples = 137\nvalue = 7.5577"] ;
564 -> 565 ;
566 [label="X[1] <= -25717688.0\nmse = 0.4251\nsamples = 39\nvalue = 7.3"] ;
565 -> 566 ;
567 [label="X[8606] <= 0.5\nmse = 0.1996\nsamples = 7\nvalue = 7.8429"] ;
566 -> 567 ;
568 [label="mse = 0.0547\nsamples = 6\nvalue = 7.6833"] ;
567 -> 568 ;
569 [label="mse = -0.0\nsamples = 1\nvalue = 8.8"] ;
567 -> 569 ;
570 [label="X[1] <= -23100360.0\nmse = 0.3959\nsamples = 32\nvalue = 7.1812"] ;
566 -> 570 ;
571 [label="mse = 0.0289\nsamples = 3\nvalue = 6.3333"] ;
570 -> 571 ;
572 [label="mse = 0.3518\nsamples = 29\nvalue = 7.269"] ;
570 -> 572 ;
573 [label="X[7872] <= 0.5\nmse = 0.3512\nsamples = 98\nvalue = 7.6602"] ;
565 -> 573 ;
574 [label="X[3578] <= 0.5\nmse = 0.3332\nsamples = 96\nvalue = 7.6375"] ;
573 -> 574 ;
575 [label="mse = 0.3251\nsamples = 93\nvalue = 7.614"] ;
574 -> 575 ;
576 [label="mse = 0.0356\nsamples = 3\nvalue = 8.3667"] ;
574 -> 576 ;
577 [label="X[0] <= 171.5\nmse = 0.0025\nsamples = 2\nvalue = 8.75"] ;
573 -> 577 ;
578 [label="mse = 0.0\nsamples = 1\nvalue = 8.8"] ;
577 -> 578 ;
579 [label="mse = 0.0\nsamples = 1\nvalue = 8.7"] ;
577 -> 579 ;
580 [label="mse = -0.0\nsamples = 2\nvalue = 6.2"] ;
564 -> 580 ;
581 [label="mse = 0.0\nsamples = 1\nvalue = 5.6"] ;
563 -> 581 ;
582 [label="X[9456] <= 0.5\nmse = 0.0225\nsamples = 2\nvalue = 6.15"] ;
562 -> 582 ;
583 [label="mse = 0.0\nsamples = 1\nvalue = 6.0"] ;
582 -> 583 ;
584 [label="mse = -0.0\nsamples = 1\nvalue = 6.3"] ;
582 -> 584 ;
585 [label="mse = 0.0\nsamples = 1\nvalue = 5.4"] ;
561 -> 585 ;
586 [label="X[0] <= 158.0\nmse = 0.0369\nsamples = 4\nvalue = 8.725"] ;
560 -> 586 ;
587 [label="X[5610] <= 0.5\nmse = 0.01\nsamples = 2\nvalue = 8.9"] ;
586 -> 587 ;
588 [label="mse = 0.0\nsamples = 1\nvalue = 8.8"] ;
587 -> 588 ;
589 [label="mse = -0.0\nsamples = 1\nvalue = 9.0"] ;
587 -> 589 ;
590 [label="X[9292] <= 0.5\nmse = 0.0025\nsamples = 2\nvalue = 8.55"] ;
586 -> 590 ;
591 [label="mse = 0.0\nsamples = 1\nvalue = 8.6"] ;
590 -> 591 ;
592 [label="mse = -0.0\nsamples = 1\nvalue = 8.5"] ;
590 -> 592 ;
593 [label="X[1] <= -11000000.0\nmse = 0.3288\nsamples = 47\nvalue = 7.9191"] ;
559 -> 593 ;
594 [label="X[1] <= -14091772.0\nmse = 0.4165\nsamples = 11\nvalue = 7.5273"] ;
593 -> 594 ;
595 [label="X[1779] <= 0.5\nmse = 0.2491\nsamples = 9\nvalue = 7.7444"] ;
594 -> 595 ;
596 [label="X[4067] <= 0.5\nmse = 0.0961\nsamples = 8\nvalue = 7.8875"] ;
595 -> 596 ;
597 [label="X[9220] <= 0.5\nmse = 0.0492\nsamples = 6\nvalue = 7.75"] ;
596 -> 597 ;
598 [label="X[0] <= 188.5\nmse = 0.0296\nsamples = 5\nvalue = 7.68"] ;
597 -> 598 ;
599 [label="mse = 0.0\nsamples = 1\nvalue = 8.0"] ;
598 -> 599 ;
600 [label="X[11059] <= 0.5\nmse = 0.005\nsamples = 4\nvalue = 7.6"] ;
598 -> 600 ;
601 [label="mse = 0.0\nsamples = 1\nvalue = 7.7"] ;
600 -> 601 ;
602 [label="X[9153] <= 0.5\nmse = 0.0022\nsamples = 3\nvalue = 7.5667"] ;
600 -> 602 ;
603 [label="mse = 0.0\nsamples = 2\nvalue = 7.6"] ;
602 -> 603 ;
604 [label="mse = -0.0\nsamples = 1\nvalue = 7.5"] ;
602 -> 604 ;
605 [label="mse = -0.0\nsamples = 1\nvalue = 8.1"] ;
597 -> 605 ;
606 [label="X[0] <= 217.0\nmse = 0.01\nsamples = 2\nvalue = 8.3"] ;
596 -> 606 ;
607 [label="mse = 0.0\nsamples = 1\nvalue = 8.2"] ;
606 -> 607 ;
608 [label="mse = -0.0\nsamples = 1\nvalue = 8.4"] ;
606 -> 608 ;
609 [label="mse = 0.0\nsamples = 1\nvalue = 6.6"] ;
595 -> 609 ;
610 [label="X[3694] <= 0.5\nmse = 0.0025\nsamples = 2\nvalue = 6.55"] ;
594 -> 610 ;
611 [label="mse = 0.0\nsamples = 1\nvalue = 6.5"] ;
610 -> 611 ;
612 [label="mse = 0.0\nsamples = 1\nvalue = 6.6"] ;
610 -> 612 ;
613 [label="X[11059] <= 0.5\nmse = 0.2407\nsamples = 36\nvalue = 8.0389"] ;
593 -> 613 ;
614 [label="X[3919] <= 0.5\nmse = 0.199\nsamples = 25\nvalue = 7.868"] ;
613 -> 614 ;
615 [label="X[6199] <= 0.5\nmse = 0.161\nsamples = 24\nvalue = 7.825"] ;
614 -> 615 ;
616 [label="X[8615] <= 0.5\nmse = 0.1292\nsamples = 23\nvalue = 7.8652"] ;
615 -> 616 ;
617 [label="X[11066] <= 0.5\nmse = 0.0954\nsamples = 21\nvalue = 7.9286"] ;
616 -> 617 ;
618 [label="X[627] <= 0.5\nmse = 0.0689\nsamples = 20\nvalue = 7.89"] ;
617 -> 618 ;
619 [label="X[11061] <= 0.5\nmse = 0.0461\nsamples = 19\nvalue = 7.9263"] ;
618 -> 619 ;
620 [label="mse = 0.0356\nsamples = 18\nvalue = 7.9"] ;
619 -> 620 ;
621 [label="mse = -0.0\nsamples = 1\nvalue = 8.4"] ;
619 -> 621 ;
622 [label="mse = 0.0\nsamples = 1\nvalue = 7.2"] ;
618 -> 622 ;
623 [label="mse = 0.0\nsamples = 1\nvalue = 8.7"] ;
617 -> 623 ;
624 [label="mse = 0.0\nsamples = 2\nvalue = 7.2"] ;
616 -> 624 ;
625 [label="mse = -0.0\nsamples = 1\nvalue = 6.9"] ;
615 -> 625 ;
626 [label="mse = -0.0\nsamples = 1\nvalue = 8.9"] ;
614 -> 626 ;
627 [label="X[1] <= 38950000.0\nmse = 0.1183\nsamples = 11\nvalue = 8.4273"] ;
613 -> 627 ;
628 [label="X[5816] <= 0.5\nmse = 0.0229\nsamples = 7\nvalue = 8.2"] ;
627 -> 628 ;
629 [label="X[0] <= 266.5\nmse = 0.0092\nsamples = 6\nvalue = 8.25"] ;
628 -> 629 ;
630 [label="X[5868] <= 0.5\nmse = 0.0056\nsamples = 5\nvalue = 8.22"] ;
629 -> 630 ;
631 [label="X[1479] <= 0.5\nmse = 0.0025\nsamples = 4\nvalue = 8.25"] ;
630 -> 631 ;
632 [label="mse = 0.0\nsamples = 2\nvalue = 8.3"] ;
631 -> 632 ;
633 [label="mse = -0.0\nsamples = 2\nvalue = 8.2"] ;
631 -> 633 ;
634 [label="mse = -0.0\nsamples = 1\nvalue = 8.1"] ;
630 -> 634 ;
635 [label="mse = 0.0\nsamples = 1\nvalue = 8.4"] ;
629 -> 635 ;
636 [label="mse = 0.0\nsamples = 1\nvalue = 7.9"] ;
628 -> 636 ;
637 [label="X[5799] <= 0.5\nmse = 0.0369\nsamples = 4\nvalue = 8.825"] ;
627 -> 637 ;
638 [label="X[10387] <= 0.5\nmse = 0.0022\nsamples = 3\nvalue = 8.9333"] ;
637 -> 638 ;
639 [label="mse = 0.0\nsamples = 2\nvalue = 8.9"] ;
638 -> 639 ;
640 [label="mse = 0.0\nsamples = 1\nvalue = 9.0"] ;
638 -> 640 ;
641 [label="mse = 0.0\nsamples = 1\nvalue = 8.5"] ;
637 -> 641 ;
642 [label="mse = 0.0\nsamples = 1\nvalue = 5.0"] ;
558 -> 642 ;
643 [label="mse = 0.0\nsamples = 1\nvalue = 4.8"] ;
557 -> 643 ;
644 [label="mse = -0.0\nsamples = 1\nvalue = 4.3"] ;
556 -> 644 ;
}